<?xml version="1.0"?>
<opencv_storage>
<stage0>
  <maxWeakCount>5</maxWeakCount>
  <stageThreshold>-1.1532787084579468e+00</stageThreshold>
  <weakClassifiers>
    <_>
      <internalNodes>
        0 -1 66903 -6.9200173020362854e-02</internalNodes>
      <leafValues>
        9.1176468133926392e-01 -7.7412730455398560e-01</leafValues></_>
    <_>
      <internalNodes>
        0 -1 94353 2.9027726501226425e-02</internalNodes>
      <leafValues>
        -5.6072419881820679e-01 8.7368428707122803e-01</leafValues></_>
    <_>
      <internalNodes>
        0 -1 69104 -1.5392778441309929e-02</internalNodes>
      <leafValues>
        8.8206905126571655e-01 -3.7547501921653748e-01</leafValues></_>
    <_>
      <internalNodes>
        0 -1 78361 2.8903078287839890e-02</internalNodes>
      <leafValues>
        -2.6692870259284973e-01 8.7980777025222778e-01</leafValues></_>
    <_>
      <internalNodes>
        0 -1 87256 -1.8086485564708710e-02</internalNodes>
      <leafValues>
        8.2484823465347290e-01 -3.2275995612144470e-01</leafValues></_></weakClassifiers></stage0>
</opencv_storage>
