<?xml version="1.0"?>
<opencv_storage>
<stage9>
  <maxWeakCount>7</maxWeakCount>
  <stageThreshold>-1.6546794176101685e+00</stageThreshold>
  <weakClassifiers>
    <_>
      <internalNodes>
        0 -1 111185 -4.5114886015653610e-02</internalNodes>
      <leafValues>
        7.1428573131561279e-01 -7.1142286062240601e-01</leafValues></_>
    <_>
      <internalNodes>
        0 -1 162244 -1.9387336215004325e-03</internalNodes>
      <leafValues>
        -6.5364563465118408e-01 2.8091296553611755e-01</leafValues></_>
    <_>
      <internalNodes>
        0 -1 65853 1.1180549860000610e-01</internalNodes>
      <leafValues>
        -3.0797958374023438e-01 7.6675069332122803e-01</leafValues></_>
    <_>
      <internalNodes>
        0 -1 155666 -6.4582360209897161e-04</internalNodes>
      <leafValues>
        4.9814498424530029e-01 -3.4313136339187622e-01</leafValues></_>
    <_>
      <internalNodes>
        0 -1 69746 8.0502942204475403e-02</internalNodes>
      <leafValues>
        -2.6435685157775879e-01 6.2521362304687500e-01</leafValues></_>
    <_>
      <internalNodes>
        0 -1 38269 1.1596733331680298e-01</internalNodes>
      <leafValues>
        -2.2433561086654663e-01 6.8230038881301880e-01</leafValues></_>
    <_>
      <internalNodes>
        0 -1 39084 2.3175445385277271e-03</internalNodes>
      <leafValues>
        -2.2453783452510834e-01 6.2401163578033447e-01</leafValues></_></weakClassifiers></stage9>
</opencv_storage>
